svm_type c_svc
kernel_type polynomial
degree 3
gamma 1
coef0 1
nr_class 5
total_sv 14
rho 0.13002 0.825028 29.8133 -4.42112 0.788889 0.226861 -0.739225 -0.732232 -0.92267 -1.86892
label 2 3 1 4 5
nr_sv 5 2 2 4 1
SV
0 0 0 0.05082979803733426 1:-0.98207 2:-0.733333 3:-0.737296 4:-0.735632 5:-0.966882 6:-0.973558 
0 0 4.342294621457238 0 1:-0.976766 2:-0.333333 3:-0.729626 4:-0.727969 5:-0.966091 6:-0.977393 
0.02014222034400125 0.01440716889180176 0 0 1:-0.965931 2:-0.6 3:-0.606903 4:-0.605364 5:-0.96544 6:-0.964675 
0 0.001293554246469022 1.382541003277253 0 1:-0.904429 2:0.0666667 3:-0.929051 4:-0.927203 5:-0.995591 6:-0.972706 
0 0 0 0.05939933057324517 1:-0.972519 2:-0.6 3:-0.986577 4:-0.984674 5:-0.997964 6:-0.99479 
-0 0.01785584476094267 0.00456178474243929 0 1:-0.956222 2:-0.733333 3:0.363375 4:0.363985 5:-0.991384 6:-0.972216 
-0.02014222034400125 0 0.01391924259689895 0.008338999357125537 1:-0.959235 2:-0.866667 3:0.303931 4:0.302682 5:-0.9889 6:-0.932923 
-0.01054447528404539 -0.01079554023974504 0.02011029844109267 0.003988332335490184 1:0.344798 2:0.6 3:-0.296261 4:-0.295019 5:-0.676406 6:0.477122 
-0.005156247854225394 -0.007060304521197628 0.004817095642506323 0.002858724030474769 1:0.656201 2:0.0666667 3:-0.288591 4:-0.287356 5:-0.66882 6:0.60803 
-0 -0 -0.02492739408359899 0 1:-0.970061 2:0.0666667 3:-0.610738 4:-0.609195 5:-0.787765 6:-0.909624 
-0.5152114144651921 -0 -0 0 1:-0.95958 2:-0.2 3:-0.764142 4:-0.762452 5:-0.956061 6:-0.953052 
-5.209624210269298 -0 -0 0.02333542848430079 1:-0.95958 2:-0.2 3:-0.764142 4:-0.762452 5:-0.956061 6:-0.953052 
-0 -0.01848102733933824 -0 0 1:-0.973003 2:-0.2 3:-0.656759 4:-0.655172 5:-0.827376 6:-0.862918 
-0.1102291286105794 -0.008338999357125537 -0.006847056365964953 -0.02333542848430079 1:-1 2:-1 3:-0.89837 4:-0.896552 5:-0.986928 6:-0.983727 
